<?xml version="1.0"?>
<opencv_storage>
<cascade>
  <stageType>BOOST</stageType>
  <featureType>HAAR</featureType>
  <height>24</height>
  <width>24</width>
  <stageParams>
    <boostType>GAB</boostType>
    <minHitRate>9.9500000476837158e-01</minHitRate>
    <maxFalseAlarm>5.0000000000000000e-01</maxFalseAlarm>
    <weightTrimRate>9.4999999999999996e-01</weightTrimRate>
    <maxDepth>1</maxDepth>
    <maxWeakCount>100</maxWeakCount></stageParams>
  <featureParams>
    <maxCatCount>0</maxCatCount>
    <featSize>1</featSize>
    <mode>BASIC</mode></featureParams>
  <stageNum>11</stageNum>
  <stages>
    <!-- stage 0 -->
    <_>
      <maxWeakCount>2</maxWeakCount>
      <stageThreshold>-8.5571981966495514e-02</stageThreshold>
      <weakClassifiers>
        <_>
          <internalNodes>
            0 -1 8 6.7884586751461029e-02</internalNodes>
          <leafValues>
            -9.6097648143768311e-01 9.1968035697937012e-01</leafValues></_>
        <_>
          <internalNodes>
            0 -1 3 2.4868734180927277e-02</internalNodes>
          <leafValues>
            -8.7647891044616699e-01 8.7540447711944580e-01</leafValues></_></weakClassifiers></_>
    <!-- stage 1 -->
    <_>
      <maxWeakCount>2</maxWeakCount>
      <stageThreshold>-1.8790340423583984e-01</stageThreshold>
      <weakClassifiers>
        <_>
          <internalNodes>
            0 -1 23 -3.0182849615812302e-02</internalNodes>
          <leafValues>
            8.0541992187500000e-01 -8.9664494991302490e-01</leafValues></_>
        <_>
          <internalNodes>
            0 -1 11 6.2970798462629318e-03</internalNodes>
          <leafValues>
            -8.1729686260223389e-01 7.0874154567718506e-01</leafValues></_></weakClassifiers></_>
    <!-- stage 2 -->
    <_>
      <maxWeakCount>4</maxWeakCount>
      <stageThreshold>-2.1752882003784180e-01</stageThreshold>
      <weakClassifiers>
        <_>
          <internalNodes>
            0 -1 47 -4.3716687709093094e-02</internalNodes>
          <leafValues>
            8.4842306375503540e-01 -5.8359718322753906e-01</leafValues></_>
        <_>
          <internalNodes>
            0 -1 24 9.9281892180442810e-03</internalNodes>
          <leafValues>
            -6.7866224050521851e-01 7.5240904092788696e-01</leafValues></_>
        <_>
          <internalNodes>
            0 -1 25 1.1228451039642096e-03</internalNodes>
          <leafValues>
            -8.5225647687911987e-01 5.7661354541778564e-01</leafValues></_>
        <_>
          <internalNodes>
            0 -1 15 -1.6584053635597229e-02</internalNodes>
          <leafValues>
            4.6811708807945251e-01 -8.5733473300933838e-01</leafValues></_></weakClassifiers></_>
    <!-- stage 3 -->
    <_>
      <maxWeakCount>4</maxWeakCount>
      <stageThreshold>-5.6865507364273071e-01</stageThreshold>
      <weakClassifiers>
        <_>
          <internalNodes>
            0 -1 35 8.6147747933864594e-03</internalNodes>
          <leafValues>
            -7.7358490228652954e-01 7.3242628574371338e-01</leafValues></_>
        <_>
          <internalNodes>
            0 -1 22 3.5439232306089252e-05</internalNodes>
          <leafValues>
            -8.2557088136672974e-01 5.0337439775466919e-01</leafValues></_>
        <_>
          <internalNodes>
            0 -1 39 -1.7020307132042944e-04</internalNodes>
          <leafValues>
            5.7024753093719482e-01 -6.1846637725830078e-01</leafValues></_>
        <_>
          <internalNodes>
            0 -1 17 3.7808395922183990e-02</internalNodes>
          <leafValues>
            -7.9234200716018677e-01 4.6025317907333374e-01</leafValues></_></weakClassifiers></_>
    <!-- stage 4 -->
    <_>
      <maxWeakCount>5</maxWeakCount>
      <stageThreshold>-6.8900531530380249e-01</stageThreshold>
      <weakClassifiers>
        <_>
          <internalNodes>
            0 -1 12 3.6643609404563904e-02</internalNodes>
          <leafValues>
            -8.6752688884735107e-01 6.2191212177276611e-01</leafValues></_>
        <_>
          <internalNodes>
            0 -1 0 1.0575422644615173e-01</internalNodes>
          <leafValues>
            -6.8697613477706909e-01 6.9977039098739624e-01</leafValues></_>
        <_>
          <internalNodes>
            0 -1 5 1.8508814275264740e-02</internalNodes>
          <leafValues>
            -5.3256118297576904e-01 7.0977449417114258e-01</leafValues></_>
        <_>
          <internalNodes>
            0 -1 37 4.4684540480375290e-03</internalNodes>
          <leafValues>
            -5.4377281665802002e-01 5.8090275526046753e-01</leafValues></_>
        <_>
          <internalNodes>
            0 -1 6 2.4925470352172852e-02</internalNodes>
          <leafValues>
            -5.1345890760421753e-01 5.5508518218994141e-01</leafValues></_></weakClassifiers></_>
    <!-- stage 5 -->
    <_>
      <maxWeakCount>4</maxWeakCount>
      <stageThreshold>-4.1816613078117371e-01</stageThreshold>
      <weakClassifiers>
        <_>
          <internalNodes>
            0 -1 20 1.8186535686254501e-02</internalNodes>
          <leafValues>
            -7.7506178617477417e-01 6.3446253538131714e-01</leafValues></_>
        <_>
          <internalNodes>
            0 -1 50 -2.4409309029579163e-02</internalNodes>
          <leafValues>
            7.6434999704360962e-01 -5.3064179420471191e-01</leafValues></_>
        <_>
          <internalNodes>
            0 -1 29 -6.3911061733961105e-03</internalNodes>
          <leafValues>
            5.0381678342819214e-01 -7.1672171354293823e-01</leafValues></_>
        <_>
          <internalNodes>
            0 -1 43 4.1178354877047241e-05</internalNodes>
          <leafValues>
            -7.7462530136108398e-01 3.8372069597244263e-01</leafValues></_></weakClassifiers></_>
    <!-- stage 6 -->
    <_>
      <maxWeakCount>5</maxWeakCount>
      <stageThreshold>-1.0593019723892212e+00</stageThreshold>
      <weakClassifiers>
        <_>
          <internalNodes>
            0 -1 21 4.5881620608270168e-03</internalNodes>
          <leafValues>
            -8.5426199436187744e-01 5.6616497039794922e-01</leafValues></_>
        <_>
          <internalNodes>
            0 -1 46 -7.4555456638336182e-02</internalNodes>
          <leafValues>
            6.2548744678497314e-01 -5.7196223735809326e-01</leafValues></_>
        <_>
          <internalNodes>
            0 -1 26 4.4205514714121819e-03</internalNodes>
          <leafValues>
            4.0714269876480103e-01 -9.1913306713104248e-01</leafValues></_>
        <_>
          <internalNodes>
            0 -1 34 -3.2417150214314461e-03</internalNodes>
          <leafValues>
            3.9487221837043762e-01 -6.8852531909942627e-01</leafValues></_>
        <_>
          <internalNodes>
            0 -1 1 -1.7149651423096657e-02</internalNodes>
          <leafValues>
            3.3737617731094360e-01 -7.7212214469909668e-01</leafValues></_></weakClassifiers></_>
    <!-- stage 7 -->
    <_>
      <maxWeakCount>4</maxWeakCount>
      <stageThreshold>-4.5383024215698242e-01</stageThreshold>
      <weakClassifiers>
        <_>
          <internalNodes>
            0 -1 33 1.7155565321445465e-02</internalNodes>
          <leafValues>
            -8.7334561347961426e-01 5.7317435741424561e-01</leafValues></_>
        <_>
          <internalNodes>
            0 -1 7 1.1655578017234802e-01</internalNodes>
          <leafValues>
            -6.3513499498367310e-01 5.1354688405990601e-01</leafValues></_>
        <_>
          <internalNodes>
            0 -1 19 -2.2954093292355537e-03</internalNodes>
          <leafValues>
            5.0102680921554565e-01 -5.9719032049179077e-01</leafValues></_>
        <_>
          <internalNodes>
            0 -1 4 4.5224092900753021e-02</internalNodes>
          <leafValues>
            -5.6409472227096558e-01 5.0315880775451660e-01</leafValues></_></weakClassifiers></_>
    <!-- stage 8 -->
    <_>
      <maxWeakCount>6</maxWeakCount>
      <stageThreshold>-7.0497506856918335e-01</stageThreshold>
      <weakClassifiers>
        <_>
          <internalNodes>
            0 -1 18 8.7755508720874786e-02</internalNodes>
          <leafValues>
            -8.3315277099609375e-01 5.8847624063491821e-01</leafValues></_>
        <_>
          <internalNodes>
            0 -1 48 -6.0093812644481659e-03</internalNodes>
          <leafValues>
            5.6392031908035278e-01 -4.8892670869827271e-01</leafValues></_>
        <_>
          <internalNodes>
            0 -1 32 -8.0564506351947784e-03</internalNodes>
          <leafValues>
            5.1132750511169434e-01 -5.5344963073730469e-01</leafValues></_>
        <_>
          <internalNodes>
            0 -1 9 7.5956620275974274e-03</internalNodes>
          <leafValues>
            -8.8722002506256104e-01 2.3966062068939209e-01</leafValues></_>
        <_>
          <internalNodes>
            0 -1 2 1.5096130780875683e-02</internalNodes>
          <leafValues>
            -5.8322572708129883e-01 3.6779430508613586e-01</leafValues></_>
        <_>
          <internalNodes>
            0 -1 41 -3.1297051464207470e-05</internalNodes>
          <leafValues>
            2.6835080981254578e-01 -8.0837506055831909e-01</leafValues></_></weakClassifiers></_>
    <!-- stage 9 -->
    <_>
      <maxWeakCount>7</maxWeakCount>
      <stageThreshold>-1.3850232362747192e+00</stageThreshold>
      <weakClassifiers>
        <_>
          <internalNodes>
            0 -1 11 8.1833433359861374e-03</internalNodes>
          <leafValues>
            -5.7873165607452393e-01 6.2765920162200928e-01</leafValues></_>
        <_>
          <internalNodes>
            0 -1 45 -1.1579291895031929e-03</internalNodes>
          <leafValues>
            4.0780380368232727e-01 -7.1411728858947754e-01</leafValues></_>
        <_>
          <internalNodes>
            0 -1 42 3.1272014894057065e-05</internalNodes>
          <leafValues>
            -7.7033448219299316e-01 3.1718772649765015e-01</leafValues></_>
        <_>
          <internalNodes>
            0 -1 10 5.1232106983661652e-02</internalNodes>
          <leafValues>
            -6.3646376132965088e-01 3.0763572454452515e-01</leafValues></_>
        <_>
          <internalNodes>
            0 -1 49 -4.7258470207452774e-02</internalNodes>
          <leafValues>
            5.3694993257522583e-01 -4.2321211099624634e-01</leafValues></_>
        <_>
          <internalNodes>
            0 -1 13 6.3501950353384018e-03</internalNodes>
          <leafValues>
            -7.6504296064376831e-01 2.9910016059875488e-01</leafValues></_>
        <_>
          <internalNodes>
            0 -1 27 5.7045638561248779e-02</internalNodes>
          <leafValues>
            1.7456716299057007e-01 -9.2239624261856079e-01</leafValues></_></weakClassifiers></_>
    <!-- stage 10 -->
    <_>
      <maxWeakCount>9</maxWeakCount>
      <stageThreshold>-1.0416030883789062e+00</stageThreshold>
      <weakClassifiers>
        <_>
          <internalNodes>
            0 -1 40 -2.2076265886425972e-03</internalNodes>
          <leafValues>
            7.3364126682281494e-01 -3.0186104774475098e-01</leafValues></_>
        <_>
          <internalNodes>
            0 -1 31 -3.6360404919832945e-05</internalNodes>
          <leafValues>
            3.2925045490264893e-01 -8.7260764837265015e-01</leafValues></_>
        <_>
          <internalNodes>
            0 -1 14 8.1655206158757210e-03</internalNodes>
          <leafValues>
            -5.4956316947937012e-01 3.9492753148078918e-01</leafValues></_>
        <_>
          <internalNodes>
            0 -1 16 -7.7573610469698906e-03</internalNodes>
          <leafValues>
            3.0506429076194763e-01 -6.2283051013946533e-01</leafValues></_>
        <_>
          <internalNodes>
            0 -1 30 1.9060008344240487e-04</internalNodes>
          <leafValues>
            -4.8578658699989319e-01 3.6605679988861084e-01</leafValues></_>
        <_>
          <internalNodes>
            0 -1 44 -3.7550389766693115e-02</internalNodes>
          <leafValues>
            5.1656639575958252e-01 -3.4858682751655579e-01</leafValues></_>
        <_>
          <internalNodes>
            0 -1 28 1.7040664330124855e-02</internalNodes>
          <leafValues>
            -4.5200657844543457e-01 4.9264571070671082e-01</leafValues></_>
        <_>
          <internalNodes>
            0 -1 38 6.8541994551196694e-04</internalNodes>
          <leafValues>
            -7.9627072811126709e-01 2.1556428074836731e-01</leafValues></_>
        <_>
          <internalNodes>
            0 -1 36 3.9128516800701618e-04</internalNodes>
          <leafValues>
            -3.6146369576454163e-01 4.7581470012664795e-01</leafValues></_></weakClassifiers></_></stages>
  <features>
    <_>
      <rects>
        <_>
          0 2 24 3 -1.</_>
        <_>
          8 2 8 3 3.</_></rects>
      <tilted>0</tilted></_>
    <_>
      <rects>
        <_>
          0 4 12 6 -1.</_>
        <_>
          0 4 6 3 2.</_>
        <_>
          6 7 6 3 2.</_></rects>
      <tilted>0</tilted></_>
    <_>
      <rects>
        <_>
          0 5 8 3 -1.</_>
        <_>
          4 5 4 3 2.</_></rects>
      <tilted>0</tilted></_>
    <_>
      <rects>
        <_>
          0 5 24 1 -1.</_>
        <_>
          8 5 8 1 3.</_></rects>
      <tilted>0</tilted></_>
    <_>
      <rects>
        <_>
          0 21 24 2 -1.</_>
        <_>
          8 21 8 2 3.</_></rects>
      <tilted>0</tilted></_>
    <_>
      <rects>
        <_>
          1 22 21 1 -1.</_>
        <_>
          8 22 7 1 3.</_></rects>
      <tilted>0</tilted></_>
    <_>
      <rects>
        <_>
          2 2 4 19 -1.</_>
        <_>
          4 2 2 19 2.</_></rects>
      <tilted>0</tilted></_>
    <_>
      <rects>
        <_>
          2 2 21 4 -1.</_>
        <_>
          9 2 7 4 3.</_></rects>
      <tilted>0</tilted></_>
    <_>
      <rects>
        <_>
          2 7 17 12 -1.</_>
        <_>
          2 11 17 4 3.</_></rects>
      <tilted>0</tilted></_>
    <_>
      <rects>
        <_>
          2 9 8 4 -1.</_>
        <_>
          2 11 8 2 2.</_></rects>
      <tilted>0</tilted></_>
    <_>
      <rects>
        <_>
          3 1 17 9 -1.</_>
        <_>
          3 4 17 3 3.</_></rects>
      <tilted>0</tilted></_>
    <_>
      <rects>
        <_>
          3 2 4 6 -1.</_>
        <_>
          5 2 2 6 2.</_></rects>
      <tilted>0</tilted></_>
    <_>
      <rects>
        <_>
          3 8 16 6 -1.</_>
        <_>
          3 11 16 3 2.</_></rects>
      <tilted>0</tilted></_>
    <_>
      <rects>
        <_>
          3 9 7 6 -1.</_>
        <_>
          3 11 7 2 3.</_></rects>
      <tilted>0</tilted></_>
    <_>
      <rects>
        <_>
          3 12 4 11 -1.</_>
        <_>
          5 12 2 11 2.</_></rects>
      <tilted>0</tilted></_>
    <_>
      <rects>
        <_>
          3 13 5 10 -1.</_>
        <_>
          3 18 5 5 2.</_></rects>
      <tilted>0</tilted></_>
    <_>
      <rects>
        <_>
          4 0 4 14 -1.</_>
        <_>
          4 0 2 7 2.</_>
        <_>
          6 7 2 7 2.</_></rects>
      <tilted>0</tilted></_>
    <_>
      <rects>
        <_>
          4 1 17 9 -1.</_>
        <_>
          4 4 17 3 3.</_></rects>
      <tilted>0</tilted></_>
    <_>
      <rects>
        <_>
          4 3 18 21 -1.</_>
        <_>
          4 10 18 7 3.</_></rects>
      <tilted>0</tilted></_>
    <_>
      <rects>
        <_>
          6 6 6 4 -1.</_>
        <_>
          8 6 2 4 3.</_></rects>
      <tilted>0</tilted></_>
    <_>
      <rects>
        <_>
          6 8 3 12 -1.</_>
        <_>
          6 12 3 4 3.</_></rects>
      <tilted>0</tilted></_>
    <_>
      <rects>
        <_>
          6 10 12 4 -1.</_>
        <_>
          6 12 12 2 2.</_></rects>
      <tilted>0</tilted></_>
    <_>
      <rects>
        <_>
          7 4 2 2 -1.</_>
        <_>
          8 4 1 2 2.</_></rects>
      <tilted>0</tilted></_>
    <_>
      <rects>
        <_>
          7 5 12 9 -1.</_>
        <_>
          7 8 12 3 3.</_></rects>
      <tilted>0</tilted></_>
    <_>
      <rects>
        <_>
          7 8 9 3 -1.</_>
        <_>
          10 8 3 3 3.</_></rects>
      <tilted>0</tilted></_>
    <_>
      <rects>
        <_>
          8 9 7 2 -1.</_>
        <_>
          8 10 7 1 2.</_></rects>
      <tilted>0</tilted></_>
    <_>
      <rects>
        <_>
          9 5 7 16 -1.</_>
        <_>
          9 13 7 8 2.</_></rects>
      <tilted>0</tilted></_>
    <_>
      <rects>
        <_>
          9 6 4 18 -1.</_>
        <_>
          9 12 4 6 3.</_></rects>
      <tilted>0</tilted></_>
    <_>
      <rects>
        <_>
          9 7 6 8 -1.</_>
        <_>
          11 7 2 8 3.</_></rects>
      <tilted>0</tilted></_>
    <_>
      <rects>
        <_>
          10 6 8 4 -1.</_>
        <_>
          14 6 4 4 2.</_></rects>
      <tilted>0</tilted></_>
    <_>
      <rects>
        <_>
          10 9 5 3 -1.</_>
        <_>
          10 10 5 1 3.</_></rects>
      <tilted>0</tilted></_>
    <_>
      <rects>
        <_>
          11 6 2 2 -1.</_>
        <_>
          11 7 2 1 2.</_></rects>
      <tilted>0</tilted></_>
    <_>
      <rects>
        <_>
          11 7 4 6 -1.</_>
        <_>
          13 7 2 6 2.</_></rects>
      <tilted>0</tilted></_>
    <_>
      <rects>
        <_>
          11 7 11 8 -1.</_>
        <_>
          11 11 11 4 2.</_></rects>
      <tilted>0</tilted></_>
    <_>
      <rects>
        <_>
          11 8 4 2 -1.</_>
        <_>
          13 8 2 2 2.</_></rects>
      <tilted>0</tilted></_>
    <_>
      <rects>
        <_>
          13 0 6 16 -1.</_>
        <_>
          13 0 3 8 2.</_>
        <_>
          16 8 3 8 2.</_></rects>
      <tilted>0</tilted></_>
    <_>
      <rects>
        <_>
          13 7 2 2 -1.</_>
        <_>
          13 7 1 1 2.</_>
        <_>
          14 8 1 1 2.</_></rects>
      <tilted>0</tilted></_>
    <_>
      <rects>
        <_>
          13 13 4 6 -1.</_>
        <_>
          15 13 2 6 2.</_></rects>
      <tilted>0</tilted></_>
    <_>
      <rects>
        <_>
          14 0 10 4 -1.</_>
        <_>
          14 2 10 2 2.</_></rects>
      <tilted>0</tilted></_>
    <_>
      <rects>
        <_>
          14 19 4 2 -1.</_>
        <_>
          14 19 2 1 2.</_>
        <_>
          16 20 2 1 2.</_></rects>
      <tilted>0</tilted></_>
    <_>
      <rects>
        <_>
          14 19 4 4 -1.</_>
        <_>
          14 19 2 2 2.</_>
        <_>
          16 21 2 2 2.</_></rects>
      <tilted>0</tilted></_>
    <_>
      <rects>
        <_>
          15 1 2 2 -1.</_>
        <_>
          16 1 1 2 2.</_></rects>
      <tilted>0</tilted></_>
    <_>
      <rects>
        <_>
          16 0 3 2 -1.</_>
        <_>
          16 1 3 1 2.</_></rects>
      <tilted>0</tilted></_>
    <_>
      <rects>
        <_>
          16 1 3 2 -1.</_>
        <_>
          16 2 3 1 2.</_></rects>
      <tilted>0</tilted></_>
    <_>
      <rects>
        <_>
          16 3 8 3 -1.</_>
        <_>
          20 3 4 3 2.</_></rects>
      <tilted>0</tilted></_>
    <_>
      <rects>
        <_>
          16 6 4 10 -1.</_>
        <_>
          16 6 2 5 2.</_>
        <_>
          18 11 2 5 2.</_></rects>
      <tilted>0</tilted></_>
    <_>
      <rects>
        <_>
          17 0 6 18 -1.</_>
        <_>
          20 0 3 18 2.</_></rects>
      <tilted>0</tilted></_>
    <_>
      <rects>
        <_>
          17 1 6 16 -1.</_>
        <_>
          20 1 3 16 2.</_></rects>
      <tilted>0</tilted></_>
    <_>
      <rects>
        <_>
          18 5 6 1 -1.</_>
        <_>
          21 5 3 1 2.</_></rects>
      <tilted>0</tilted></_>
    <_>
      <rects>
        <_>
          19 0 4 20 -1.</_>
        <_>
          21 0 2 20 2.</_></rects>
      <tilted>0</tilted></_>
    <_>
      <rects>
        <_>
          19 2 4 10 -1.</_>
        <_>
          21 2 2 10 2.</_></rects>
      <tilted>0</tilted></_></features></cascade>
</opencv_storage>
