<?xml version="1.0"?>
<opencv_storage>
<stage8>
  <maxWeakCount>6</maxWeakCount>
  <stageThreshold>-7.0497506856918335e-01</stageThreshold>
  <weakClassifiers>
    <_>
      <internalNodes>
        0 -1 52778 8.7755508720874786e-02</internalNodes>
      <leafValues>
        -8.3315277099609375e-01 5.8847624063491821e-01</leafValues></_>
    <_>
      <internalNodes>
        0 -1 153254 -6.0093812644481659e-03</internalNodes>
      <leafValues>
        5.6392031908035278e-01 -4.8892670869827271e-01</leafValues></_>
    <_>
      <internalNodes>
        0 -1 117941 -8.0564506351947784e-03</internalNodes>
      <leafValues>
        5.1132750511169434e-01 -5.5344963073730469e-01</leafValues></_>
    <_>
      <internalNodes>
        0 -1 33550 7.5956620275974274e-03</internalNodes>
      <leafValues>
        -8.8722002506256104e-01 2.3966062068939209e-01</leafValues></_>
    <_>
      <internalNodes>
        0 -1 5180 1.5096130780875683e-02</internalNodes>
      <leafValues>
        -5.8322572708129883e-01 3.6779430508613586e-01</leafValues></_>
    <_>
      <internalNodes>
        0 -1 139637 -3.1297051464207470e-05</internalNodes>
      <leafValues>
        2.6835080981254578e-01 -8.0837506055831909e-01</leafValues></_></weakClassifiers></stage8>
</opencv_storage>
